<?xml version="1.0"?>
<opencv_storage>
<stage3>
  <maxWeakCount>12</maxWeakCount>
  <stageThreshold>-1.1688827276229858e+00</stageThreshold>
  <weakClassifiers>
    <_>
      <internalNodes>
        0 -1 27340 -5.3624338470399380e-03</internalNodes>
      <leafValues>
        5.5508249998092651e-01 -4.6641075611114502e-01</leafValues></_>
    <_>
      <internalNodes>
        0 -1 62185 -5.0073452293872833e-03</internalNodes>
      <leafValues>
        5.8275038003921509e-01 -3.4523645043373108e-01</leafValues></_>
    <_>
      <internalNodes>
        0 -1 22283 8.9631956070661545e-03</internalNodes>
      <leafValues>
        -3.0478084087371826e-01 5.6617027521133423e-01</leafValues></_>
    <_>
      <internalNodes>
        0 -1 72458 5.4801974445581436e-02</internalNodes>
      <leafValues>
        -2.8887605667114258e-01 5.7661288976669312e-01</leafValues></_>
    <_>
      <internalNodes>
        0 -1 46601 1.9656628370285034e-02</internalNodes>
      <leafValues>
        -2.9600417613983154e-01 4.9190601706504822e-01</leafValues></_>
    <_>
      <internalNodes>
        0 -1 49664 1.8972547259181738e-03</internalNodes>
      <leafValues>
        -2.5105783343315125e-01 6.0306757688522339e-01</leafValues></_>
    <_>
      <internalNodes>
        0 -1 12618 4.3811504729092121e-03</internalNodes>
      <leafValues>
        -2.8316554427146912e-01 4.5723095536231995e-01</leafValues></_>
    <_>
      <internalNodes>
        0 -1 49251 2.2141630761325359e-03</internalNodes>
      <leafValues>
        1.7809732258319855e-01 -7.1797746419906616e-01</leafValues></_>
    <_>
      <internalNodes>
        0 -1 49057 -2.7385255321860313e-02</internalNodes>
      <leafValues>
        -8.9505112171173096e-01 1.2047031521797180e-01</leafValues></_>
    <_>
      <internalNodes>
        0 -1 64837 2.5753816589713097e-03</internalNodes>
      <leafValues>
        -5.7019400596618652e-01 2.0068158209323883e-01</leafValues></_>
    <_>
      <internalNodes>
        0 -1 61757 1.2497645802795887e-03</internalNodes>
      <leafValues>
        -4.2609661817550659e-01 2.5684192776679993e-01</leafValues></_>
    <_>
      <internalNodes>
        0 -1 51647 -5.3261215798556805e-03</internalNodes>
      <leafValues>
        -8.6007630825042725e-01 1.2800730764865875e-01</leafValues></_></weakClassifiers></stage3>
</opencv_storage>
