<?xml version="1.0"?>
<opencv_storage>
<stage2>
  <maxWeakCount>10</maxWeakCount>
  <stageThreshold>-1.3011785745620728e+00</stageThreshold>
  <weakClassifiers>
    <_>
      <internalNodes>
        0 -1 42404 -1.1150788515806198e-02</internalNodes>
      <leafValues>
        5.6499224901199341e-01 -6.2046909332275391e-01</leafValues></_>
    <_>
      <internalNodes>
        0 -1 2211 4.1637755930423737e-02</internalNodes>
      <leafValues>
        -3.5137388110160828e-01 6.3838404417037964e-01</leafValues></_>
    <_>
      <internalNodes>
        0 -1 39436 4.0324077010154724e-02</internalNodes>
      <leafValues>
        -2.8517624735832214e-01 6.7807161808013916e-01</leafValues></_>
    <_>
      <internalNodes>
        0 -1 51374 2.2294327616691589e-02</internalNodes>
      <leafValues>
        -3.0695033073425293e-01 5.9318929910659790e-01</leafValues></_>
    <_>
      <internalNodes>
        0 -1 72864 2.6900410652160645e-02</internalNodes>
      <leafValues>
        -3.3364924788475037e-01 5.9338831901550293e-01</leafValues></_>
    <_>
      <internalNodes>
        0 -1 44359 3.0679386109113693e-03</internalNodes>
      <leafValues>
        2.2637930512428284e-01 -8.0581712722778320e-01</leafValues></_>
    <_>
      <internalNodes>
        0 -1 45965 1.0032949969172478e-02</internalNodes>
      <leafValues>
        -2.7832061052322388e-01 5.9265518188476562e-01</leafValues></_>
    <_>
      <internalNodes>
        0 -1 60889 -3.7142891436815262e-02</internalNodes>
      <leafValues>
        -8.9447867870330811e-01 1.9030125439167023e-01</leafValues></_>
    <_>
      <internalNodes>
        0 -1 27057 -3.6233686842024326e-03</internalNodes>
      <leafValues>
        3.7959033250808716e-01 -3.4250277280807495e-01</leafValues></_>
    <_>
      <internalNodes>
        0 -1 54393 -6.2643885612487793e-03</internalNodes>
      <leafValues>
        3.7006860971450806e-01 -3.8487827777862549e-01</leafValues></_></weakClassifiers></stage2>
</opencv_storage>
